function [y1,xf1] = nio_d4n8_r5(x1,xi1)
%MYNEURALNETWORKFUNCTION neural network simulation function.
%
% Auto-generated by MATLAB, 12-May-2019 23:40:12.
%
% [y1,xf1] = myNeuralNetworkFunction(x1,xi1) takes these arguments:
%   x1 = 3xTS matrix, input #1
%   xi1 = 3x4 matrix, initial 4 delay states for input #1.
% and returns:
%   y1 = 1xTS matrix, output #1
%   xf1 = 3x4 matrix, final 4 delay states for input #1.
% where TS is the number of timesteps.

% ===== NEURAL NETWORK CONSTANTS =====

% Input 1
x1_step1.keep = [1 2];
x1_step2.xoffset = [1361;56];
x1_step2.gain = [0.00110741971207087;0.0176991150442478];
x1_step2.ymin = -1;

% Layer 1
b1 = [0.43681272651941610574;-0.76191696730152658201;-5.7494770125029495134;-0.92828264221212264395;0.50002687408097301613;-0.015088664565866547959;-0.24399631344037164826;1.1352610571479060386];
IW1_1 = [17.251288184241150958 -10.759072859480118822 1.9409585881546229658 -1.5523870502243466429 3.8043755168999515703 2.7456819402472190106 -22.259930944999066327 7.1146375211831038854;-17.521782793184538463 6.5457906029925601032 18.039785118234643591 -4.4971897592505367669 -0.16022882507987898371 -1.4244075275662970714 -1.4642915474471533965 1.4089997409110235349;5.7292438470790818528 -4.474009228426026219 -0.65978398878778021786 5.3303492655387367805 -7.16574025965136574 1.7789060969215919616 5.2164343412713893855 -10.585961992208924087;-5.4264831075041906061 5.2598783274876250715 -5.2034058300846455225 1.8293753731963930953 -2.4414430873163439628 -1.4682866102662035512 11.924875855262008884 -3.6552484512320475574;20.358392789910194409 -11.218428873618599084 -2.4464367620630964595 -1.8008683079454166354 5.3974179265673996042 3.0031163344920246416 -22.899387790584484037 6.9663227702055481316;-13.282205668117290642 9.3848630899209410927 -4.9957850064682203239 1.635396368380220844 -2.8455413376574787421 -2.470944101351790323 20.444857659708091546 -7.1208951746214177447;-13.348588621359642303 9.3706116576104729887 -4.7863148901342631447 1.4997308759744638618 -2.674187701779016102 -2.4470740340282395309 20.08142953442980172 -6.7489846126648362912;18.550939639349302013 -7.5605934421709557469 -18.56196044662408795 5.7405472139852289359 -0.37957008322606128337 2.0123467451932510741 1.5032461608664997588 -2.1155625465468936852];

% Layer 2
b2 = -0.96765395505348283933;
LW2_1 = [20.487877226543606213 3.8295910395270746918 0.069353081876411926121 -1.2365532809063692898 -7.0064550443686135495 -9.9401835764639336901 24.670331061053808241 3.8223621379679468824];

% Output 1
y1_step1.ymin = -1;
y1_step1.gain = 2;
y1_step1.xoffset = 0;

% ===== SIMULATION ========

% Dimensions
TS = size(x1,2); % timesteps

% Input 1 Delay States
xd1 = removeconstantrows_apply(xi1,x1_step1);
xd1 = mapminmax_apply(xd1,x1_step2);
xd1 = [xd1 zeros(2,1)];

% Allocate Outputs
y1 = zeros(1,TS);

% Time loop
for ts=1:TS
    
    % Rotating delay state position
    xdts = mod(ts+3,5)+1;
    
    % Input 1
    temp = removeconstantrows_apply(x1(:,ts),x1_step1);
    xd1(:,xdts) = mapminmax_apply(temp,x1_step2);
    
    % Layer 1
    tapdelay1 = reshape(xd1(:,mod(xdts-[1 2 3 4]-1,5)+1),8,1);
    a1 = tansig_apply(b1 + IW1_1*tapdelay1);
    
    % Layer 2
    a2 = b2 + LW2_1*a1;
    
    % Output 1
    y1(:,ts) = mapminmax_reverse(a2,y1_step1);
end

% Final delay states
finalxts = TS+(1: 4);
xits = finalxts(finalxts<=4);
xts = finalxts(finalxts>4)-4;
xf1 = [xi1(:,xits) x1(:,xts)];
end

% ===== MODULE FUNCTIONS ========

% Map Minimum and Maximum Input Processing Function
function y = mapminmax_apply(x,settings)
y = bsxfun(@minus,x,settings.xoffset);
y = bsxfun(@times,y,settings.gain);
y = bsxfun(@plus,y,settings.ymin);
end

% Remove Constants Input Processing Function
function y = removeconstantrows_apply(x,settings)
y = x(settings.keep,:);
end

% Sigmoid Symmetric Transfer Function
function a = tansig_apply(n,~)
a = 2 ./ (1 + exp(-2*n)) - 1;
end

% Map Minimum and Maximum Output Reverse-Processing Function
function x = mapminmax_reverse(y,settings)
x = bsxfun(@minus,y,settings.ymin);
x = bsxfun(@rdivide,x,settings.gain);
x = bsxfun(@plus,x,settings.xoffset);
end
