function [y1,xf1] = nio_d18n16_3inputs50(x1,xi1)
%MYNEURALNETWORKFUNCTION neural network simulation function.
% delay 18 and 16 neuron for rupture 10
% Auto-generated by MATLAB, 11-May-2019 00:22:39.
%
% [y1,xf1] = myNeuralNetworkFunction(x1,xi1) takes these arguments:
%   x1 = 3xTS matrix, input #1
%   xi1 = 3x18 matrix, initial 18 delay states for input #1.
% and returns:
%   y1 = 1xTS matrix, output #1
%   xf1 = 3x18 matrix, final 18 delay states for input #1.
% where TS is the number of timesteps.

% ===== NEURAL NETWORK CONSTANTS =====

% Input 1
x1_step1.xoffset = [588;52;0];
x1_step1.gain = [0.000550206327372765;0.0045662100456621;2];
x1_step1.ymin = -1;

% Layer 1
b1 = [6.1003771629596448278;0.50710290583940764719;2.5946224252979641633;3.9704129043468188165;4.7025503783097750699;10.719327427448670065;-8.2153597130928321945;5.7128538531294941194;-7.6429930523599640679;-4.4147483946697629875;1.2967814942748132623;-69.348709824601414198;5.8574356313951918551;3.8788258530528101353;3.481414615265828516;0.97214481574332622937];
IW1_1 = [-4.6559316965416561729 3.4496321575728563502 -3.0997251067867090946 8.9885473818534116219 -5.3522101919634375022 0.28926015167298779751 -4.2420689317441082622 2.3035569701862708136 -0.31652464064018792644 -6.641291116796537608 -3.9266096425587027063 -0.089063409216294880943 1.8750971759445793641 3.7516960581235343497 -0.16490501244493935284 -4.6478081928557326563 2.9470186672123905858 -0.24277241362908405509 13.02886387303987803 0.4367643154451927856 0.2368699246624112742 -3.096564141961525074 -1.6740767120355672937 -1.2863992869954079534 7.558272738776096844 -0.87554506510044427525 0.67411358809376498158 1.0807389512903329276 -5.1099698814282890069 -0.41444911597831041172 1.5525050649465992336 2.4868735778919379698 0.059823819366840280676 -3.8978663301526070839 -1.2520199246871244192 0.25518658041370440026 -9.9186113536172229033 4.1340024517378362034 0.25132267608055613994 -3.3350178445103941804 -1.5228617717898127459 -0.44298287394461083322 0.25263365993507702623 -0.025937395049900918709 0.95875335284538731884 4.4631656040711327194 0.68965346075090350197 0.14530845173495177125 0.10020746556615778289 0.12787538149992966341 -1.3788096229393054237 1.1367991670052126629 -0.1084975770558493785 0.033253267921920862116;-0.33399945520321949743 -6.3987000889409459958 -6.2253050935539873123 19.934339578008792415 -13.9398472570079619 -2.1171079674749244681 -3.0373380943599324056 7.268270077854089628 -1.7402893502218326205 0.83545560962086562462 7.0941624896131552092 -1.6913549982350040146 -7.4259512810870234034 0.70421594854170721511 -2.0181052476278193986 4.3922112084522328956 0.036519700206166627598 -2.3526796926457511638 2.692238008814526129 -1.0721661478933559586 -0.73014021646040017099 -2.3250999134628429488 2.2404089547475414257 1.0555589834125580495 1.5884079314387615778 -1.0464659762141645949 0.23872445105783679509 3.7139257994762133741 -7.1440671986480248634 -2.8776636212214388166 11.715314277439633273 -3.0396873081335291644 -1.308286384707801453 4.5715269160143900962 -5.9266045336743022887 -2.4124395589941398654 4.2905431112512797398 -5.3418644532813646109 -0.80489129103131862308 -4.9793324690941416222 -1.6337019717674414743 -1.1520129955021138901 -1.8712488152815467402 -6.0126458106794480329 0.30777259203372986374 -5.4658100576838171136 1.1040972488855023137 -0.36175560005955859078 -7.4092908902654377457 1.6622534207936867645 -2.426952387893510199 -12.904894487633971067 1.3553007678720150331 0.076632434554046446884;-9.2302451838034897946 7.7456957455067012575 -2.147690703398492218 6.4192080628434515788 -5.6143058657101105879 -0.95329567241955548429 3.5049148480822012175 -3.186949330836903016 -0.57286147196631109768 2.6642937925677809829 -1.1627156000113298973 -0.55680713695205630298 -0.15469986355279560786 0.88839406940111353972 -0.29209463462378720822 0.99511125104462316848 2.7429671986186159316 -0.11205193215399872342 1.7640039903098965191 -0.71839261972616141882 -0.25195004601350134976 0.8001654286385238013 -2.1431198768173560509 -0.52100304141410758163 3.2689213535031917957 -1.0919678451189585022 0.91821967799833525969 1.9314897330097704486 -1.0643749918255362985 -0.87774657423620283669 3.6173162785993753232 2.2063693526803147549 -0.088766695259483968661 -3.2020703035657365199 -0.10847462719778079576 -0.50522623303353608737 0.78079278299855980894 -2.8568220752603510348 -0.72452775596568197436 -3.3393733820765900688 -4.9563686145478547118 0.16424781141969102549 -3.7342286507139226259 -0.78254578252493245394 0.1917228260239055293 -2.5808409273092394187 2.0089909816397453213 -0.11675205192281545852 -3.0053314301241265127 3.9217706221518295884 -0.53644969712830781194 -0.12296882303994854935 -1.7651639849137801264 0.07564927784088883167;7.4482726203116902397 -4.9790144205830246804 -3.7878370013200020061 1.6467281243370761601 -2.1283770816783724733 -1.6350705978971851184 -4.4556008708419749809 -0.53455194048542575835 -0.88545285511412985535 -2.7163609358717022424 2.1062605467001973558 1.7223234600769652403 -2.7509613262241638942 1.2064958964078149606 -1.302478593897658854 2.9029770974966222497 1.7193048883099317781 1.1254370214699005448 -6.1812812647828634383 0.020984623373493507814 -0.66831077145993467159 5.0098017778463832528 -0.19884721779792402518 -0.79476274652590650494 2.696893130059807131 1.125084567910195732 1.0401170587462924555 0.75176973975485017476 0.24562325178962074457 -1.7690238388299608374 3.6884717407297769043 -1.9540151666480110038 0.89236033661951930096 1.9777704341297748236 0.51661974834953694469 -0.61091188346656288832 -1.2050842674091173379 -3.39462996955338836 -1.2573785447251437652 0.47206177194962373189 -1.3303398355806377307 0.026092036393454181437 -2.6940946072599052385 -1.8610524151297571649 -0.16174079279337991166 -1.2593397450148036132 4.1855210109444964672 -0.058151150388094485777 -3.9378248152164436746 0.40114579115278170551 -0.75828426223864131561 -1.3646585986691275316 -0.30509636398862327589 1.5455711529732085729;2.4571226390387925775 -5.6577039732548914941 -3.0218339235508504537 3.8203097273813857448 -1.900316170587595721 -1.4108408189602048566 -1.9203734531259755158 1.2491432187428888057 -1.1646736046862034009 -1.9812955639629892257 0.9726718983390448825 0.016010253301273209836 -2.3091858990637090798 -1.2172193496565140158 -0.33243577825555042926 4.6703678458127768636 3.257162054450159161 -0.031723727274966993794 -5.8824459273715081764 -0.99552006613408816627 0.19137879888333314549 1.856837446067548969 0.36866884549561240725 0.092446577461490000993 -0.93610584274649122349 -0.47116341795038113593 0.20002532179830720405 0.37052494101574223739 0.26068162761911867209 3.8417935385525496805 0.71896238423948299889 -0.047193122544637811089 -3.9851031853796938798 -0.024045942733227132493 -1.9770695261854163149 -0.12116163714639663351 2.0048042502542382515 -1.1322956419991303534 0.55207753176185603294 -0.28850574071919832253 1.8385297371010551615 1.6366348098028637992 -2.7478880894921724476 -1.1883683967469029774 -1.6277489905288211602 -2.1515177667540923423 1.2277994906088702809 -0.20865084491418375845 1.7609296015989501782 -0.22003250643172181378 0.76848195864441881664 0.69918181696370906852 0.57550839009418919279 1.3350447236569280562;30.424378518399858962 -19.100808066695162069 -12.158113788817557221 26.857732004731765585 -18.975392840757550061 -5.1283947172912078827 12.016916837007446617 -5.3330446112620721877 -3.3453567619660824484 0.43560194103339489047 2.5151449408388630857 -2.9328314617511646034 -19.736518522087717287 -1.0461389014667901165 -2.7595584820647918178 -11.680840257259411885 1.7008466808733373465 1.6934682217097472012 -22.976740284025851224 8.2905250716957539225 -5.5966896847348612809 -17.269219418228370699 8.6145606924486610723 -2.1113185016181472697 -9.0557079975812406758 0.94926757807450135029 0.41883105196486003496 0.26575772528251800919 -4.2717579137590391269 0.3059612495029288004 12.739945769466277881 0.13801650651909946887 -0.028808371242565390669 5.7311942083221314448 0.0071969097016806038436 0.32369573292686570909 -3.8629813767002456615 -0.24210119228077220388 0.30744571280925675483 -1.9263978293848755818 2.3146973785669007206 0.25856956888919785387 -3.7184426733296933598 -0.13711178310092342336 0.11436803064576497868 -1.6945016672919424039 2.09878676497273986 -0.069979967158507724867 6.1532811551919879278 0.77298404638290796331 0.060862630062110976981 2.5524594864937730776 -1.5210973202794257908 0.089992860021226195322;6.5737238561280850746 -8.7437431060001298277 -2.8299175306217616566 2.9246656635922048117 0.7590890322224651543 4.769743241058176153 -4.4845260536823863262 6.1592399743839854054 4.4726592291827884651 -2.4972961303562430935 0.043118012489074764026 -0.056557663986755948859 -2.9189634759617555382 1.9346451842169607449 0.022764220285426430695 4.1362257380889859704 -4.2936553275913977856 -0.051937117576079411263 4.9993681372455149869 -4.0677697735287896563 -0.1458146623899828076 -6.2592189207095643155 -1.6651580111521404604 0.97088496325937678755 -1.034132854723799122 -0.64948332812140863179 0.29664379492826231655 -2.105487182963710957 5.2543938728760553047 0.058960756833417289624 -6.3659450217233146674 2.9228622939204518261 0.38576718821141103843 2.6824804027777138238 -3.3022982651418275601 -0.23139016385286192978 -3.19245836912091141 1.8310058613848454456 0.10719208422869214159 3.0664908074676628935 1.7146110661164712941 0.12602462911279088686 3.936610639006396628 -1.8727837210182620709 -0.22107547666603510894 0.98210028590097031564 3.2983109198232636317 -0.092159177840635250756 1.0475772700815206839 -2.7114814447644741691 1.3807363398152443512 0.67882406481524926178 0.10838781145449402632 -0.5869495929819940061;6.7347290392681591342 -5.3586906649567263017 1.4430128907455694875 -14.057932481457424245 7.7576015633677144478 0.48814038533196801861 4.1211612276896660845 -1.6190488570687060488 0.36810815757336357024 -2.5817983966743462965 -0.67302901629568923081 0.064519173700935211757 1.9323581178920550272 -0.99923716315723165593 -0.25537291570652043138 0.40025236454614832038 -1.8877333223821346486 -0.43154943263507444806 -0.2412602117392925738 1.6846427071965137667 0.29197300375266388439 -1.1048339436927756552 0.5858239265807168028 -4.8189531094844308967 -0.91643995670720301838 1.8926495708717911981 0.13064270047480786019 0.384145362389900491 3.2485793725680194299 0.22199436853970921923 -3.0034554337906320676 -2.5523802411310034799 0.094111650605323476926 3.5397019640251570216 -0.22750522195675959569 0.27910988463152619499 -2.2023527028214906487 1.6666634380551328398 -0.20686721517802253434 4.70031516431243368 0.29402848926626046211 0.19203961143920902921 -2.8940681462064845597 0.98071787225365159024 0.22036849695351992673 1.711408517333953494 1.1062384888834186913 0.31437662637508378971 0.90869173984170226177 -0.47307608605861517503 -0.4041889763801391755 0.52769333708650190129 0.17159473927601132104 -0.11787212490751233784;-22.058934331842877441 14.530165770166128425 7.1996604190791693156 0.20928363360369939272 1.0005245273694121089 1.7469699917424654778 -5.8276218061691027472 6.2899536464865422047 2.8951574805808841795 -0.49480140785848031326 0.42448702248667258274 2.6797792726801241692 4.6776612837108011433 0.79570646271434519736 0.17200272736389393691 6.2143847529511164751 -1.4968900250611569813 -0.36211729674922044087 17.558121589617659453 -5.7735924416172750284 0.63224050623459593368 1.3238726089332348845 -4.618491379603848479 1.3725442653682757843 4.9293655388920960547 -1.591175044604273392 -0.36367215037409594824 0.41000037578989695364 0.057304861733378134603 -0.31803046648344762692 -6.4570547167067715577 1.8590577558070708886 0.024204616846767113003 -4.3681240438353903244 -0.62001090037576434 -0.39343988957326225808 3.0835446962247567981 0.53706642333761167585 -0.20538913099508163129 -3.9062169146840144407 -2.1773805240355303958 -0.22065785537409257633 5.8622708018720226519 -2.1457410843817745771 -0.1024450015016668547 2.0793524691774418756 1.126845063112129619 -0.023083166840055728553 -2.6861452219145505182 -0.75529438247691249586 -0.47640516400652105355 -0.78509569394037970191 0.090653922458019120523 -0.16644166425834688861;-4.856750348672828288 1.8206490858990662662 5.0079140463533118321 -0.29071756360541833875 0.66125179174327852749 0.38750133755766374977 1.4979667463452295273 1.305720128170261729 0.67603077103999531516 -0.33090587245771041491 -0.35025326162091463544 -0.039025916257859671887 0.60295939467937786915 0.55917638592663365671 0.15726880653105262953 -0.23991218415875548153 -2.1951023757035752482 -0.0083120029767362081652 6.3363934711576845871 -1.0938375978460881388 -0.14760497251588727829 -3.6451573300757327267 -0.91359130896790774479 -0.1042172949401177634 0.049187352015723884158 -0.024612670194775795873 -0.093467534372006805254 -0.54752958951857655379 1.6435766330839767235 0.019045222039382671275 -3.4803427590846056638 0.49324291893525806785 0.14367307350962310597 0.86347983285852913937 -0.042585677470275987155 0.10550835532841844333 -0.39562158303324446162 1.1755218521518724373 0.2104891462636439281 0.067302416617739752036 0.24134097937032633618 -0.026845273842172952261 2.3157782497796035592 -0.34708299374900253298 0.15482117286739571771 1.3927744297364581527 0.18373926764554726621 0.12318139534125005508 0.49537987700894298149 -0.66095754555718988499 0.27459040166162096419 0.56881874419996869552 -0.041108519474822580175 -0.61316541032667282174;26.420040940740570079 -19.17340750342845368 -6.0629362164799580626 3.9576047083364986889 1.457594679669118598 5.8967571162088310288 -9.8977006858910172582 3.2682870046978327316 0.92080505789602085098 -3.0777887852796412815 3.4907378179618406833 0.94261141663646530464 -4.2547928737348312822 3.4193103491345260281 0.55551469706217271316 2.9114451293772285467 -2.1044265986820942516 0.14201645311951119344 -13.305656087132490484 -2.7435491825779365627 -0.29807877760061984862 7.2034889615045418765 -0.51973351862027317161 -13.702334043911392314 3.1027555970100291205 -0.24967020710151718865 -0.091711632066953388542 -6.0047517742633846893 1.8130385760676366314 -0.22529204912135575301 3.6727729023267015052 0.37052823468280871033 0.067442229073424980745 0.85499909869717172217 -0.096008148551385272262 -0.024599568383918479081 -3.2226504325656080141 -1.5093958009750900739 -0.12986673232569506675 3.0419491589196558934 0.52972439614136512809 -0.16131083113179311983 0.52922146774885370224 -1.9981588504311809107 -0.085894248810223214341 -2.4253204359662756673 -0.23219740908747865671 0.12676113360362523119 -0.39539826990161736076 0.022190689894968584905 -0.15861546894975850353 -3.8199956940285821894 0.61807804273650812643 0.28340299584904560248;-62.779004241414469334 44.523728174963260074 24.276372501487049504 -43.069214971193233055 28.501234672644045531 11.907060191959468298 -27.450237728241404511 24.549435892253949731 10.184043645033698411 -8.4744149044257710557 11.912230170719826816 9.7186980457624709828 10.147414053454467009 8.0668445145685812037 9.1624639139561594448 28.910048585564972257 -0.11001759209566813746 3.6674818840035912082 32.527376308779729186 -4.2721406176029326218 7.6949496349769379577 31.759780426340707749 -3.8573459893040391577 -4.2706943016915248634 28.128914481491918309 -12.805957006820934296 -3.3960610312867864913 31.380047038735423115 -17.665893468189651117 -14.947419886609004891 27.8840963124063137 -14.086572711824420168 -0.73756123096121695148 20.473269836359207829 -14.457070170257075858 -3.3955491142761284884 30.639396837296967391 -26.774528755599806829 -2.1618017702310785566 7.6769910543589654495 -25.770699539667425881 1.1332517071207106607 -6.5109487499571674363 -14.097994473032887441 -0.11159196546949534667 -16.881601343407840687 1.4069581137032738383 1.565862062258897236 -33.955389098057359831 3.4112159977613183415 10.23766992467487924 -49.959671426413763129 3.8595461980193204177 -0.085949421195359726466;-6.4495775475141847721 3.8741934341622576987 -1.1596762534995164184 11.316295305814291439 -7.2891633327890739125 -1.5504925645848497417 -4.7183352367294322249 1.6062597231654762719 0.84611728305798583616 -4.7914034287015256908 -1.0948657452312553495 -1.0911073210163075853 -0.026492553559061160495 1.7783250993358605818 -0.2938106752584357384 -2.2788282936022716818 3.3603965724190230091 -0.17562393652841035152 7.5876733205994213449 0.50423417492856492661 1.1185750012711419554 -0.66582287164183318051 -0.52725454781486646993 -1.8214192358521159587 4.7684018010243800489 -0.33854507160685609612 0.33430976714372290237 0.97252770280147105009 -4.2553467794703276894 -0.055769388604175990087 2.5359238296809629709 1.7606891680977871939 -0.082921581932423521488 -4.2586578822770739805 -0.50882147683860001752 0.49817842576156001755 -3.7554309911888714701 1.9204152668584928421 0.086152104350916677844 -5.0790698714878557141 -0.037699946446530741007 -0.012791673077234257117 0.50395943200199644352 -1.036930190547703079 0.20119629144898054651 3.6918461299337925752 1.0434846707810383482 0.21306032400714314257 -0.85298975606249149983 0.48151432378415992552 -1.0617356413965655104 0.57583207288050131112 -0.14194664119556404946 0.0200339339499041591;-8.7656934327625339876 5.4410268246717370388 -3.0151290217584456599 7.1214771250166215566 -6.8590198608304691064 -1.5840620218717536005 1.0949844134738562218 -1.9160828469639932248 -0.35634668999216895235 -1.2663350436738021187 -0.27292365771810972452 -0.50236344038614688667 -1.1789360650828584198 1.767191588635376398 -0.20715231131150252386 1.7625694185274631831 3.0110255352068375778 -0.06313906523324822051 3.945141583347755887 -0.30850493420087343743 -0.2562695929704597031 3.0721805715783552237 -2.3249576336187143255 -0.46927140360712843448 4.5851865722354556709 -0.51175881621210095318 0.67552137986917348833 3.2642482572665927343 -1.1413198377306610354 -0.40893567001660086069 4.0755927836342662474 1.9620749792282934365 -0.4306121707811119137 -2.242323628692087123 -0.2863315530694464095 -0.47010006408558824287 -0.65812963715666850106 -2.7913911167139358049 -0.64939864672534763912 -3.5124179760191251987 -4.9791649599799754355 0.28311525528752234937 -3.644171897526613968 -2.2274393893190245208 0.028300813779977153362 -0.96834366282529349412 3.5815584906492032857 -0.052160557631015104507 -4.5670907549979737894 4.026138102731439794 -0.28032259570566842033 -2.1925023537153705 -1.553880799399963708 0.15266160667509995341;23.983053822161075175 -13.186625943912051895 -2.9000708528370275907 -20.523069412896461472 12.508014124601981365 5.0392154439994705228 -0.44179900735351473884 -0.088023464278306318143 0.4672127779252347457 -2.9518750945448788414 -2.4894798262557662483 0.35465120913229475352 1.9134976572492321534 1.0955593142584194588 0.0073965680981054465759 0.17399913560211582864 -1.2897183879566218589 -0.17687911432254435629 -5.3760755742372081656 1.4199999431202698918 -0.56235812965344067482 5.8102893146526222168 -0.46819095709832669883 -6.0334308016768911642 -0.67364551903027081181 -0.0047112795315822353359 0.16621123520800207274 0.79090774931467122677 0.27769101391696193737 -0.15747993010860225627 -2.2376652349739774017 -0.78298610502264620603 0.30632081198075716832 1.7421354753583424557 -0.84585593725198060522 -0.071145939928355092507 -9.4056440108511747411 3.5273105308929793011 0.19874713038476188309 9.386276086865450452 -1.8098731418264941695 0.042274895743998931741 -3.1942982327307554158 2.7100059876298727701 -0.14070687807070453301 -0.64681564907634259143 -1.5226851450928240439 0.034936639192886420613 3.6308497280147542519 -1.3759757731159445449 -0.25486369766723965258 -1.6563394860233904282 1.0496475062230072872 0.061306138710354507459;-12.184609714744604858 7.1320842548149858686 -8.6174086850469304721 -1.4745852568634179036 -1.4126772290893556683 0.73256545394389860348 3.8343075542969535796 7.8649683704333854806 -1.4095133277491722623 1.4046556197164616897 4.3728898189040306121 2.233864608716368938 8.2192681631764266115 3.6963176719511832147 -0.18804875704887472065 6.7749304508688874549 -2.5142892727754340143 -2.4881172685759365137 13.836230529168622283 -5.6759040132660780742 -0.60499025243854465117 6.5615377984687466295 -4.0637302113150228777 -6.7262510754303672655 6.7614722379325842283 -7.9131962528072641305 -3.5321775922331446473 13.029087609759184119 -2.6038570008436234815 -3.1928133726051939334 0.74719905725918689399 0.81746233651584021551 -0.87061117892626738168 3.6909775221018144009 -7.1938472170459597521 -0.63078554913033024754 -2.8343305332669337382 -6.4197218304720991 5.485031147356400183 -0.90983725071277810059 -10.873383572272780739 -0.99765085599574243602 -9.2783274549020671174 -5.025244816579428786 -1.2150050185350740328 -1.1667569107254445182 -2.3901621292938823871 0.38321392061486270197 -9.165805567368440876 2.1808426638373799022 -2.2464133670544472743 -18.169943867104727531 2.2778625555457026053 -0.096914098796852754525];

% Layer 2
b2 = -3.434450772558397702;
LW2_1 = [-7.1393061361948699783 0.71434896415134696568 7.5499478413005194355 2.6413265380355057665 2.4679726232890857318 -1.0218533020780617981 -1.5016537232948481417 -1.5155965819711745279 -1.2302643340447567688 4.5645409198082846913 -1.0371506239493042401 0.73992772182311872253 7.9279796045226129664 -7.5030576075823276483 2.5524402911749222156 -0.63002262677749287789];

% Output 1
y1_step1.ymin = -1;
y1_step1.gain = 2;
y1_step1.xoffset = 0;

% ===== SIMULATION ========

% Dimensions
TS = size(x1,2); % timesteps

% Input 1 Delay States
xd1 = mapminmax_apply(xi1,x1_step1);
xd1 = [xd1 zeros(3,1)];

% Allocate Outputs
y1 = zeros(1,TS);

% Time loop
for ts=1:TS
    
    % Rotating delay state position
    xdts = mod(ts+17,19)+1;
    
    % Input 1
    xd1(:,xdts) = mapminmax_apply(x1(:,ts),x1_step1);
    
    % Layer 1
    tapdelay1 = reshape(xd1(:,mod(xdts-[1 2 3 4 5 6 7 8 9 10 11 12 13 14 15 16 17 18]-1,19)+1),54,1);
    a1 = tansig_apply(b1 + IW1_1*tapdelay1);
    
    % Layer 2
    a2 = b2 + LW2_1*a1;
    
    % Output 1
    y1(:,ts) = mapminmax_reverse(a2,y1_step1);
end

% Final delay states
finalxts = TS+(1: 18);
xits = finalxts(finalxts<=18);
xts = finalxts(finalxts>18)-18;
xf1 = [xi1(:,xits) x1(:,xts)];
end

% ===== MODULE FUNCTIONS ========

% Map Minimum and Maximum Input Processing Function
function y = mapminmax_apply(x,settings)
y = bsxfun(@minus,x,settings.xoffset);
y = bsxfun(@times,y,settings.gain);
y = bsxfun(@plus,y,settings.ymin);
end

% Sigmoid Symmetric Transfer Function
function a = tansig_apply(n,~)
a = 2 ./ (1 + exp(-2*n)) - 1;
end

% Map Minimum and Maximum Output Reverse-Processing Function
function x = mapminmax_reverse(y,settings)
x = bsxfun(@minus,y,settings.ymin);
x = bsxfun(@rdivide,x,settings.gain);
x = bsxfun(@plus,x,settings.xoffset);
end
